|--- fyu <= 0.50
|   |--- cos <= 0.50
|   |   |--- hte <= 0.50
|   |   |   |--- pir <= 0.50
|   |   |   |   |--- aced <= 0.50
|   |   |   |   |   |--- class: 0
|   |   |   |   |--- aced >  0.50
|   |   |   |   |   |--- class: 0
|   |   |   |--- pir >  0.50
|   |   |   |   |--- class: 0
|   |   |--- hte >  0.50
|   |   |   |--- class: 0
|   |--- cos >  0.50
|   |   |--- class: 0
|--- fyu >  0.50
|   |--- class: 1
